digraph Tree {
node [shape=box, style="filled, rounded", color="black", fontname="helvetica"] ;
edge [fontname="helvetica"] ;
0 [label="age <= 28.5\ngini = 0.56\nsamples = 5\nvalue = [3, 1, 1]\nclass = Acoustic", fillcolor="#f2c09c"] ;
1 [label="age <= 23.5\ngini = 0.5\nsamples = 2\nvalue = [0, 1, 1]\nclass = Classical", fillcolor="#ffffff"] ;
0 -> 1 [labeldistance=2.5, labelangle=45, headlabel="True"] ;
2 [label="gini = 0.0\nsamples = 1\nvalue = [0, 1, 0]\nclass = Classical", fillcolor="#39e581"] ;
1 -> 2 ;
3 [label="gini = 0.0\nsamples = 1\nvalue = [0, 0, 1]\nclass = Dance", fillcolor="#8139e5"] ;
1 -> 3 ;
4 [label="gini = 0.0\nsamples = 3\nvalue = [3, 0, 0]\nclass = Acoustic", fillcolor="#e58139"] ;
0 -> 4 [labeldistance=2.5, labelangle=-45, headlabel="False"] ;
}